1 300
</s> 0.001334 0.001473 -0.001277 -0.001093 0.000456 0.001007 0.000314 0.000070 -0.001201 0.000739 -0.001452 0.000417 -0.000250 -0.000319 -0.001105 -0.000627 0.000860 0.001008 0.000990 0.000532 0.000515 -0.001268 -0.001365 0.001657 0.001267 0.001030 -0.000201 0.001339 -0.000165 0.000245 -0.000050 -0.000994 0.000437 -0.000446 -0.001275 0.001585 0.001460 -0.000365 -0.000075 0.000170 -0.001213 -0.001336 0.001518 0.000021 -0.000861 -0.001014 -0.001025 0.000566 0.000067 0.000444 -0.001405 -0.001269 -0.000043 0.000381 0.000850 -0.001057 0.001360 0.000309 0.000373 -0.000203 0.000995 -0.000763 -0.000699 0.000719 -0.000251 0.000344 0.000602 -0.001363 -0.000661 0.000971 0.001411 0.001311 -0.001016 -0.000703 -0.000303 0.000667 -0.001263 0.000999 0.000929 -0.000533 -0.000517 -0.000746 0.001410 0.001304 -0.000393 0.001405 0.001607 0.000605 0.001661 -0.001037 -0.000511 -0.000702 -0.000969 0.000938 0.000526 0.000142 -0.000731 0.000508 0.001020 0.000065 0.000760 -0.001651 0.001438 0.000160 -0.000610 -0.000694 -0.000249 -0.000978 -0.001457 -0.000946 0.001426 -0.000590 -0.000893 0.000772 -0.000568 0.001586 -0.000535 -0.001530 0.000905 -0.000025 -0.001163 0.000325 0.000481 -0.000160 0.000608 -0.001319 0.000294 0.000606 -0.001003 0.000047 -0.000020 -0.000800 -0.000944 -0.001565 0.000008 0.000051 0.000003 -0.001311 -0.001654 -0.001582 -0.001442 -0.000182 0.000464 0.000395 -0.001061 0.001666 -0.000670 -0.000425 -0.000468 0.001578 -0.001255 0.000387 -0.000445 0.001063 0.000014 0.001423 -0.000940 -0.000868 -0.001397 -0.001222 -0.001066 -0.001038 0.000815 -0.000622 0.000893 0.001230 0.000452 0.000984 0.000825 0.000780 -0.001184 -0.001144 -0.001219 -0.000044 0.001377 -0.000912 -0.001020 -0.001399 0.001102 -0.001393 -0.000193 0.000726 -0.001539 -0.001493 0.000481 0.001175 0.001421 0.000715 0.001054 -0.001043 -0.001213 0.001325 -0.000922 0.000584 0.000191 0.000597 -0.000394 0.000066 -0.000562 -0.000376 -0.001478 -0.001087 0.001162 0.000335 -0.000788 -0.000531 0.000832 -0.001178 -0.000771 0.001578 0.001416 -0.001320 0.000290 -0.000750 0.000051 0.001002 0.001615 0.000662 0.001371 0.001049 -0.000077 0.001492 0.000845 0.001580 -0.000568 0.001582 0.001443 -0.000476 -0.001473 0.001611 0.000299 -0.000693 -0.000239 -0.000245 -0.001284 -0.000477 -0.000148 -0.001642 -0.001172 -0.000401 -0.000314 0.000597 0.000272 -0.000205 0.000982 0.000482 0.000183 0.001206 -0.000375 -0.000476 -0.000138 -0.000909 -0.001000 0.000067 0.001446 -0.000456 -0.000007 -0.001378 0.001236 -0.000507 0.000989 -0.000803 -0.000298 0.000031 0.001208 -0.000029 0.001478 -0.000248 0.000700 -0.000046 -0.001301 0.001417 0.000352 -0.001010 0.001003 -0.001382 -0.001451 0.001089 -0.001144 -0.000883 0.001176 0.001095 0.000228 0.001508 0.001619 0.001352 0.000588 -0.001450 0.000763 -0.001631 -0.000429 0.000504 0.000327 -0.000508 0.000979 -0.001536 -0.000470 -0.000437 -0.000552 0.001024 
